<?xml version="1.0"?>
<opencv_storage>
<cascade>
  <stageType>BOOST</stageType>
  <featureType>HAAR</featureType>
  <height>48</height>
  <width>48</width>
  <stageParams>
    <boostType>GAB</boostType>
    <minHitRate>9.9500000476837158e-01</minHitRate>
    <maxFalseAlarm>5.0000000000000000e-01</maxFalseAlarm>
    <weightTrimRate>9.4999998807907104e-01</weightTrimRate>
    <maxDepth>1</maxDepth>
    <maxWeakCount>100</maxWeakCount></stageParams>
  <featureParams>
    <maxCatCount>0</maxCatCount>
    <featSize>1</featSize>
    <mode>BASIC</mode></featureParams>
  <stageNum>4</stageNum>
  <stages>
    <!-- stage 0 -->
    <_>
      <maxWeakCount>1</maxWeakCount>
      <stageThreshold>9.8260867595672607e-01</stageThreshold>
      <weakClassifiers>
        <_>
          <internalNodes>
            0 -1 0 1.1037841439247131e-01</internalNodes>
          <leafValues>
            -1. 9.8260867595672607e-01</leafValues></_></weakClassifiers></_>
    <!-- stage 1 -->
    <_>
      <maxWeakCount>1</maxWeakCount>
      <stageThreshold>9.4871795177459717e-01</stageThreshold>
      <weakClassifiers>
        <_>
          <internalNodes>
            0 -1 5 -1.3971893349662423e-03</internalNodes>
          <leafValues>
            9.4871795177459717e-01 -1.</leafValues></_></weakClassifiers></_>
    <!-- stage 2 -->
    <_>
      <maxWeakCount>2</maxWeakCount>
      <stageThreshold>-1.1957666836678982e-02</stageThreshold>
      <weakClassifiers>
        <_>
          <internalNodes>
            0 -1 4 9.2571405693888664e-03</internalNodes>
          <leafValues>
            -9.7849464416503906e-01 9.6521741151809692e-01</leafValues></_>
        <_>
          <internalNodes>
            0 -1 3 3.3101818989962339e-03</internalNodes>
          <leafValues>
            -9.2495167255401611e-01 9.6653693914413452e-01</leafValues></_></weakClassifiers></_>
    <!-- stage 3 -->
    <_>
      <maxWeakCount>2</maxWeakCount>
      <stageThreshold>-8.7269665673375130e-03</stageThreshold>
      <weakClassifiers>
        <_>
          <internalNodes>
            0 -1 1 3.6867868620902300e-03</internalNodes>
          <leafValues>
            -8.7878787517547607e-01 9.8165136575698853e-01</leafValues></_>
        <_>
          <internalNodes>
            0 -1 2 7.7550346031785011e-04</internalNodes>
          <leafValues>
            -9.4187361001968384e-01 8.7006092071533203e-01</leafValues></_></weakClassifiers></_></stages>
  <features>
    <_>
      <rects>
        <_>
          4 16 35 18 -1.</_>
        <_>
          4 22 35 6 3.</_></rects>
      <tilted>0</tilted></_>
    <_>
      <rects>
        <_>
          4 19 4 10 -1.</_>
        <_>
          4 19 2 5 2.</_>
        <_>
          6 24 2 5 2.</_></rects>
      <tilted>0</tilted></_>
    <_>
      <rects>
        <_>
          9 19 3 4 -1.</_>
        <_>
          10 19 1 4 3.</_></rects>
      <tilted>0</tilted></_>
    <_>
      <rects>
        <_>
          16 28 10 2 -1.</_>
        <_>
          21 28 5 2 2.</_></rects>
      <tilted>0</tilted></_>
    <_>
      <rects>
        <_>
          17 27 15 4 -1.</_>
        <_>
          22 27 5 4 3.</_></rects>
      <tilted>0</tilted></_>
    <_>
      <rects>
        <_>
          21 20 6 4 -1.</_>
        <_>
          21 22 6 2 2.</_></rects>
      <tilted>0</tilted></_></features></cascade>
</opencv_storage>
